digraph Tree {
node [shape=box] ;
0 [label="Ba <= 0.221\ngini = 0.726\nsamples = 181\nvalue = [61, 66, 15, 10, 6, 23]"] ;
1 [label="Mg <= 1.006\ngini = 0.67\nsamples = 156\nvalue = [60, 64, 15, 8, 6, 3]"] ;
0 -> 1 [labeldistance=2.5, labelangle=45, headlabel="True"] ;
2 [label="RI <= 1.524\ngini = 0.649\nsamples = 15\nvalue = [0, 7, 0, 5, 2, 1]"] ;
1 -> 2 ;
3 [label="Na <= 14.041\ngini = 0.66\nsamples = 10\nvalue = [0, 2, 0, 5, 2, 1]"] ;
2 -> 3 ;
4 [label="Al <= 1.109\ngini = 0.449\nsamples = 7\nvalue = [0, 1, 0, 5, 0, 1]"] ;
3 -> 4 ;
5 [label="gini = 0.0\nsamples = 1\nvalue = [0, 1, 0, 0, 0, 0]"] ;
4 -> 5 ;
6 [label="Na <= 12.147\ngini = 0.278\nsamples = 6\nvalue = [0, 0, 0, 5, 0, 1]"] ;
4 -> 6 ;
7 [label="gini = 0.0\nsamples = 1\nvalue = [0, 0, 0, 0, 0, 1]"] ;
6 -> 7 ;
8 [label="gini = 0.0\nsamples = 5\nvalue = [0, 0, 0, 5, 0, 0]"] ;
6 -> 8 ;
9 [label="K <= 0.064\ngini = 0.444\nsamples = 3\nvalue = [0, 1, 0, 0, 2, 0]"] ;
3 -> 9 ;
10 [label="gini = 0.0\nsamples = 2\nvalue = [0, 0, 0, 0, 2, 0]"] ;
9 -> 10 ;
11 [label="gini = 0.0\nsamples = 1\nvalue = [0, 1, 0, 0, 0, 0]"] ;
9 -> 11 ;
12 [label="gini = 0.0\nsamples = 5\nvalue = [0, 5, 0, 0, 0, 0]"] ;
2 -> 12 ;
13 [label="Ca <= 10.43\ngini = 0.643\nsamples = 141\nvalue = [60, 57, 15, 3, 4, 2]"] ;
1 -> 13 ;
14 [label="Al <= 1.357\ngini = 0.634\nsamples = 136\nvalue = [60, 54, 15, 1, 4, 2]"] ;
13 -> 14 ;
15 [label="Mg <= 3.614\ngini = 0.562\nsamples = 81\nvalue = [49, 18, 12, 0, 1, 1]"] ;
14 -> 15 ;
16 [label="RI <= 1.517\ngini = 0.504\nsamples = 43\nvalue = [29, 5, 7, 0, 1, 1]"] ;
15 -> 16 ;
17 [label="Ca <= 8.242\ngini = 0.595\nsamples = 11\nvalue = [2, 3, 6, 0, 0, 0]"] ;
16 -> 17 ;
18 [label="gini = 0.0\nsamples = 2\nvalue = [0, 2, 0, 0, 0, 0]"] ;
17 -> 18 ;
19 [label="Fe <= 0.074\ngini = 0.494\nsamples = 9\nvalue = [2, 1, 6, 0, 0, 0]"] ;
17 -> 19 ;
20 [label="Si <= 72.732\ngini = 0.406\nsamples = 8\nvalue = [1, 1, 6, 0, 0, 0]"] ;
19 -> 20 ;
21 [label="gini = 0.0\nsamples = 4\nvalue = [0, 0, 4, 0, 0, 0]"] ;
20 -> 21 ;
22 [label="Si <= 72.747\ngini = 0.625\nsamples = 4\nvalue = [1, 1, 2, 0, 0, 0]"] ;
20 -> 22 ;
23 [label="gini = 0.0\nsamples = 1\nvalue = [1, 0, 0, 0, 0, 0]"] ;
22 -> 23 ;
24 [label="Mg <= 3.546\ngini = 0.444\nsamples = 3\nvalue = [0, 1, 2, 0, 0, 0]"] ;
22 -> 24 ;
25 [label="gini = 0.0\nsamples = 2\nvalue = [0, 0, 2, 0, 0, 0]"] ;
24 -> 25 ;
26 [label="gini = 0.0\nsamples = 1\nvalue = [0, 1, 0, 0, 0, 0]"] ;
24 -> 26 ;
27 [label="gini = 0.0\nsamples = 1\nvalue = [1, 0, 0, 0, 0, 0]"] ;
19 -> 27 ;
28 [label="Ba <= 0.128\ngini = 0.281\nsamples = 32\nvalue = [27, 2, 1, 0, 1, 1]"] ;
16 -> 28 ;
29 [label="Mg <= 2.493\ngini = 0.235\nsamples = 31\nvalue = [27, 2, 0, 0, 1, 1]"] ;
28 -> 29 ;
30 [label="gini = 0.0\nsamples = 1\nvalue = [0, 0, 0, 0, 1, 0]"] ;
29 -> 30 ;
31 [label="Na <= 12.413\ngini = 0.184\nsamples = 30\nvalue = [27, 2, 0, 0, 0, 1]"] ;
29 -> 31 ;
32 [label="gini = 0.0\nsamples = 1\nvalue = [0, 1, 0, 0, 0, 0]"] ;
31 -> 32 ;
33 [label="Si <= 73.723\ngini = 0.131\nsamples = 29\nvalue = [27, 1, 0, 0, 0, 1]"] ;
31 -> 33 ;
34 [label="RI <= 1.521\ngini = 0.069\nsamples = 28\nvalue = [27, 0, 0, 0, 0, 1]"] ;
33 -> 34 ;
35 [label="gini = 0.0\nsamples = 24\nvalue = [24, 0, 0, 0, 0, 0]"] ;
34 -> 35 ;
36 [label="Si <= 72.289\ngini = 0.375\nsamples = 4\nvalue = [3, 0, 0, 0, 0, 1]"] ;
34 -> 36 ;
37 [label="gini = 0.0\nsamples = 3\nvalue = [3, 0, 0, 0, 0, 0]"] ;
36 -> 37 ;
38 [label="gini = 0.0\nsamples = 1\nvalue = [0, 0, 0, 0, 0, 1]"] ;
36 -> 38 ;
39 [label="gini = 0.0\nsamples = 1\nvalue = [0, 1, 0, 0, 0, 0]"] ;
33 -> 39 ;
40 [label="gini = 0.0\nsamples = 1\nvalue = [0, 0, 1, 0, 0, 0]"] ;
28 -> 40 ;
41 [label="RI <= 1.519\ngini = 0.589\nsamples = 38\nvalue = [20, 13, 5, 0, 0, 0]"] ;
15 -> 41 ;
42 [label="Mg <= 3.675\ngini = 0.554\nsamples = 19\nvalue = [6, 11, 2, 0, 0, 0]"] ;
41 -> 42 ;
43 [label="Na <= 13.592\ngini = 0.625\nsamples = 8\nvalue = [4, 2, 2, 0, 0, 0]"] ;
42 -> 43 ;
44 [label="RI <= 1.518\ngini = 0.444\nsamples = 6\nvalue = [4, 2, 0, 0, 0, 0]"] ;
43 -> 44 ;
45 [label="gini = 0.0\nsamples = 4\nvalue = [4, 0, 0, 0, 0, 0]"] ;
44 -> 45 ;
46 [label="gini = 0.0\nsamples = 2\nvalue = [0, 2, 0, 0, 0, 0]"] ;
44 -> 46 ;
47 [label="gini = 0.0\nsamples = 2\nvalue = [0, 0, 2, 0, 0, 0]"] ;
43 -> 47 ;
48 [label="RI <= 1.518\ngini = 0.298\nsamples = 11\nvalue = [2, 9, 0, 0, 0, 0]"] ;
42 -> 48 ;
49 [label="gini = 0.0\nsamples = 2\nvalue = [2, 0, 0, 0, 0, 0]"] ;
48 -> 49 ;
50 [label="gini = 0.0\nsamples = 9\nvalue = [0, 9, 0, 0, 0, 0]"] ;
48 -> 50 ;
51 [label="Ca <= 9.466\ngini = 0.421\nsamples = 19\nvalue = [14, 2, 3, 0, 0, 0]"] ;
41 -> 51 ;
52 [label="K <= 0.496\ngini = 0.571\nsamples = 7\nvalue = [4, 2, 1, 0, 0, 0]"] ;
51 -> 52 ;
53 [label="Fe <= 0.203\ngini = 0.32\nsamples = 5\nvalue = [4, 0, 1, 0, 0, 0]"] ;
52 -> 53 ;
54 [label="gini = 0.0\nsamples = 4\nvalue = [4, 0, 0, 0, 0, 0]"] ;
53 -> 54 ;
55 [label="gini = 0.0\nsamples = 1\nvalue = [0, 0, 1, 0, 0, 0]"] ;
53 -> 55 ;
56 [label="gini = 0.0\nsamples = 2\nvalue = [0, 2, 0, 0, 0, 0]"] ;
52 -> 56 ;
57 [label="K <= 0.158\ngini = 0.278\nsamples = 12\nvalue = [10, 0, 2, 0, 0, 0]"] ;
51 -> 57 ;
58 [label="Fe <= 0.07\ngini = 0.375\nsamples = 8\nvalue = [6, 0, 2, 0, 0, 0]"] ;
57 -> 58 ;
59 [label="Ca <= 9.565\ngini = 0.444\nsamples = 6\nvalue = [4, 0, 2, 0, 0, 0]"] ;
58 -> 59 ;
60 [label="gini = 0.0\nsamples = 1\nvalue = [0, 0, 1, 0, 0, 0]"] ;
59 -> 60 ;
61 [label="Mg <= 3.789\ngini = 0.32\nsamples = 5\nvalue = [4, 0, 1, 0, 0, 0]"] ;
59 -> 61 ;
62 [label="RI <= 1.522\ngini = 0.5\nsamples = 2\nvalue = [1, 0, 1, 0, 0, 0]"] ;
61 -> 62 ;
63 [label="gini = 0.0\nsamples = 1\nvalue = [0, 0, 1, 0, 0, 0]"] ;
62 -> 63 ;
64 [label="gini = 0.0\nsamples = 1\nvalue = [1, 0, 0, 0, 0, 0]"] ;
62 -> 64 ;
65 [label="gini = 0.0\nsamples = 3\nvalue = [3, 0, 0, 0, 0, 0]"] ;
61 -> 65 ;
66 [label="gini = 0.0\nsamples = 2\nvalue = [2, 0, 0, 0, 0, 0]"] ;
58 -> 66 ;
67 [label="gini = 0.0\nsamples = 4\nvalue = [4, 0, 0, 0, 0, 0]"] ;
57 -> 67 ;
68 [label="Mg <= 2.709\ngini = 0.525\nsamples = 55\nvalue = [11, 36, 3, 1, 3, 1]"] ;
14 -> 68 ;
69 [label="K <= 0.183\ngini = 0.667\nsamples = 6\nvalue = [0, 1, 0, 1, 3, 1]"] ;
68 -> 69 ;
70 [label="gini = 0.0\nsamples = 3\nvalue = [0, 0, 0, 0, 3, 0]"] ;
69 -> 70 ;
71 [label="Ca <= 9.992\ngini = 0.667\nsamples = 3\nvalue = [0, 1, 0, 1, 0, 1]"] ;
69 -> 71 ;
72 [label="K <= 0.611\ngini = 0.5\nsamples = 2\nvalue = [0, 1, 0, 0, 0, 1]"] ;
71 -> 72 ;
73 [label="gini = 0.0\nsamples = 1\nvalue = [0, 1, 0, 0, 0, 0]"] ;
72 -> 73 ;
74 [label="gini = 0.0\nsamples = 1\nvalue = [0, 0, 0, 0, 0, 1]"] ;
72 -> 74 ;
75 [label="gini = 0.0\nsamples = 1\nvalue = [0, 0, 0, 1, 0, 0]"] ;
71 -> 75 ;
76 [label="Fe <= 0.123\ngini = 0.436\nsamples = 49\nvalue = [11, 35, 3, 0, 0, 0]"] ;
68 -> 76 ;
77 [label="Ca <= 8.182\ngini = 0.381\nsamples = 38\nvalue = [7, 29, 2, 0, 0, 0]"] ;
76 -> 77 ;
78 [label="Al <= 1.639\ngini = 0.165\nsamples = 22\nvalue = [2, 20, 0, 0, 0, 0]"] ;
77 -> 78 ;
79 [label="Ca <= 7.841\ngini = 0.245\nsamples = 14\nvalue = [2, 12, 0, 0, 0, 0]"] ;
78 -> 79 ;
80 [label="Si <= 73.089\ngini = 0.444\nsamples = 3\nvalue = [2, 1, 0, 0, 0, 0]"] ;
79 -> 80 ;
81 [label="gini = 0.0\nsamples = 2\nvalue = [2, 0, 0, 0, 0, 0]"] ;
80 -> 81 ;
82 [label="gini = 0.0\nsamples = 1\nvalue = [0, 1, 0, 0, 0, 0]"] ;
80 -> 82 ;
83 [label="gini = 0.0\nsamples = 11\nvalue = [0, 11, 0, 0, 0, 0]"] ;
79 -> 83 ;
84 [label="gini = 0.0\nsamples = 8\nvalue = [0, 8, 0, 0, 0, 0]"] ;
78 -> 84 ;
85 [label="Al <= 1.387\ngini = 0.57\nsamples = 16\nvalue = [5, 9, 2, 0, 0, 0]"] ;
77 -> 85 ;
86 [label="gini = 0.0\nsamples = 2\nvalue = [2, 0, 0, 0, 0, 0]"] ;
85 -> 86 ;
87 [label="Si <= 72.12\ngini = 0.52\nsamples = 14\nvalue = [3, 9, 2, 0, 0, 0]"] ;
85 -> 87 ;
88 [label="gini = 0.0\nsamples = 1\nvalue = [0, 0, 1, 0, 0, 0]"] ;
87 -> 88 ;
89 [label="K <= 0.537\ngini = 0.462\nsamples = 13\nvalue = [3, 9, 1, 0, 0, 0]"] ;
87 -> 89 ;
90 [label="gini = 0.0\nsamples = 4\nvalue = [0, 4, 0, 0, 0, 0]"] ;
89 -> 90 ;
91 [label="K <= 0.618\ngini = 0.568\nsamples = 9\nvalue = [3, 5, 1, 0, 0, 0]"] ;
89 -> 91 ;
92 [label="Fe <= 0.091\ngini = 0.612\nsamples = 7\nvalue = [3, 3, 1, 0, 0, 0]"] ;
91 -> 92 ;
93 [label="Na <= 13.312\ngini = 0.56\nsamples = 5\nvalue = [3, 1, 1, 0, 0, 0]"] ;
92 -> 93 ;
94 [label="RI <= 1.518\ngini = 0.375\nsamples = 4\nvalue = [3, 1, 0, 0, 0, 0]"] ;
93 -> 94 ;
95 [label="gini = 0.0\nsamples = 3\nvalue = [3, 0, 0, 0, 0, 0]"] ;
94 -> 95 ;
96 [label="gini = 0.0\nsamples = 1\nvalue = [0, 1, 0, 0, 0, 0]"] ;
94 -> 96 ;
97 [label="gini = 0.0\nsamples = 1\nvalue = [0, 0, 1, 0, 0, 0]"] ;
93 -> 97 ;
98 [label="gini = 0.0\nsamples = 2\nvalue = [0, 2, 0, 0, 0, 0]"] ;
92 -> 98 ;
99 [label="gini = 0.0\nsamples = 2\nvalue = [0, 2, 0, 0, 0, 0]"] ;
91 -> 99 ;
100 [label="Na <= 12.92\ngini = 0.562\nsamples = 11\nvalue = [4, 6, 1, 0, 0, 0]"] ;
76 -> 100 ;
101 [label="Ba <= 0.044\ngini = 0.444\nsamples = 6\nvalue = [4, 2, 0, 0, 0, 0]"] ;
100 -> 101 ;
102 [label="gini = 0.0\nsamples = 4\nvalue = [4, 0, 0, 0, 0, 0]"] ;
101 -> 102 ;
103 [label="gini = 0.0\nsamples = 2\nvalue = [0, 2, 0, 0, 0, 0]"] ;
101 -> 103 ;
104 [label="Al <= 1.717\ngini = 0.32\nsamples = 5\nvalue = [0, 4, 1, 0, 0, 0]"] ;
100 -> 104 ;
105 [label="gini = 0.0\nsamples = 4\nvalue = [0, 4, 0, 0, 0, 0]"] ;
104 -> 105 ;
106 [label="gini = 0.0\nsamples = 1\nvalue = [0, 0, 1, 0, 0, 0]"] ;
104 -> 106 ;
107 [label="Na <= 12.708\ngini = 0.48\nsamples = 5\nvalue = [0, 3, 0, 2, 0, 0]"] ;
13 -> 107 ;
108 [label="gini = 0.0\nsamples = 2\nvalue = [0, 0, 0, 2, 0, 0]"] ;
107 -> 108 ;
109 [label="gini = 0.0\nsamples = 3\nvalue = [0, 3, 0, 0, 0, 0]"] ;
107 -> 109 ;
110 [label="K <= 0.473\ngini = 0.346\nsamples = 25\nvalue = [1, 2, 0, 2, 0, 20]"] ;
0 -> 110 [labeldistance=2.5, labelangle=-45, headlabel="False"] ;
111 [label="Mg <= 3.301\ngini = 0.105\nsamples = 18\nvalue = [1, 0, 0, 0, 0, 17]"] ;
110 -> 111 ;
112 [label="gini = 0.0\nsamples = 17\nvalue = [0, 0, 0, 0, 0, 17]"] ;
111 -> 112 ;
113 [label="gini = 0.0\nsamples = 1\nvalue = [1, 0, 0, 0, 0, 0]"] ;
111 -> 113 ;
114 [label="Fe <= 0.153\ngini = 0.653\nsamples = 7\nvalue = [0, 2, 0, 2, 0, 3]"] ;
110 -> 114 ;
115 [label="Al <= 2.108\ngini = 0.375\nsamples = 4\nvalue = [0, 0, 0, 1, 0, 3]"] ;
114 -> 115 ;
116 [label="gini = 0.0\nsamples = 2\nvalue = [0, 0, 0, 0, 0, 2]"] ;
115 -> 116 ;
117 [label="Al <= 3.08\ngini = 0.5\nsamples = 2\nvalue = [0, 0, 0, 1, 0, 1]"] ;
115 -> 117 ;
118 [label="gini = 0.0\nsamples = 1\nvalue = [0, 0, 0, 0, 0, 1]"] ;
117 -> 118 ;
119 [label="gini = 0.0\nsamples = 1\nvalue = [0, 0, 0, 1, 0, 0]"] ;
117 -> 119 ;
120 [label="Fe <= 0.348\ngini = 0.444\nsamples = 3\nvalue = [0, 2, 0, 1, 0, 0]"] ;
114 -> 120 ;
121 [label="gini = 0.0\nsamples = 2\nvalue = [0, 2, 0, 0, 0, 0]"] ;
120 -> 121 ;
122 [label="gini = 0.0\nsamples = 1\nvalue = [0, 0, 0, 1, 0, 0]"] ;
120 -> 122 ;
}